digraph Tree {
node [shape=box, style="filled", color="black"] ;
0 [label="LSTAT <= 7.865\nmse = 88.337\nsamples = 337\nvalue = 23.015", fillcolor="#f7d7c0"] ;
1 [label="RM <= 7.437\nmse = 78.197\nsamples = 106\nvalue = 32.424", fillcolor="#f1b991"] ;
0 -> 1 [labeldistance=2.5, labelangle=45, headlabel="True"] ;
2 [label="DIS <= 1.557\nmse = 39.805\nsamples = 84\nvalue = 29.286", fillcolor="#f3c3a1"] ;
1 -> 2 ;
3 [label="mse = 0.0\nsamples = 3\nvalue = 50.0", fillcolor="#e58139"] ;
2 -> 3 ;
4 [label="RM <= 6.797\nmse = 24.799\nsamples = 81\nvalue = 28.519", fillcolor="#f3c5a4"] ;
2 -> 4 ;
5 [label="mse = 9.393\nsamples = 44\nvalue = 25.28", fillcolor="#f5d0b5"] ;
4 -> 5 ;
6 [label="mse = 15.807\nsamples = 37\nvalue = 32.37", fillcolor="#f1b991"] ;
4 -> 6 ;
7 [label="B <= 361.925\nmse = 43.645\nsamples = 22\nvalue = 44.405", fillcolor="#e99355"] ;
1 -> 7 ;
8 [label="mse = 0.0\nsamples = 1\nvalue = 21.9", fillcolor="#f7dac5"] ;
7 -> 8 ;
9 [label="CRIM <= 0.577\nmse = 20.458\nsamples = 21\nvalue = 45.476", fillcolor="#e88f50"] ;
7 -> 9 ;
10 [label="mse = 17.181\nsamples = 15\nvalue = 43.667", fillcolor="#e99559"] ;
9 -> 10 ;
11 [label="mse = -0.0\nsamples = 6\nvalue = 50.0", fillcolor="#e58139"] ;
9 -> 11 ;
12 [label="LSTAT <= 16.085\nmse = 33.725\nsamples = 231\nvalue = 18.697", fillcolor="#fae5d5"] ;
0 -> 12 [labeldistance=2.5, labelangle=-45, headlabel="False"] ;
13 [label="DIS <= 1.207\nmse = 21.069\nsamples = 142\nvalue = 21.651", fillcolor="#f8dbc7"] ;
12 -> 13 ;
14 [label="mse = 0.0\nsamples = 1\nvalue = 50.0", fillcolor="#e58139"] ;
13 -> 14 ;
15 [label="RM <= 6.603\nmse = 15.478\nsamples = 141\nvalue = 21.45", fillcolor="#f8dcc8"] ;
13 -> 15 ;
16 [label="mse = 8.764\nsamples = 127\nvalue = 20.633", fillcolor="#f8decc"] ;
15 -> 16 ;
17 [label="mse = 15.462\nsamples = 14\nvalue = 28.857", fillcolor="#f3c4a3"] ;
15 -> 17 ;
18 [label="CRIM <= 5.657\nmse = 17.788\nsamples = 89\nvalue = 13.984", fillcolor="#fdf4ed"] ;
12 -> 18 ;
19 [label="DIS <= 1.883\nmse = 13.527\nsamples = 42\nvalue = 16.729", fillcolor="#fbebdf"] ;
18 -> 19 ;
20 [label="mse = 4.949\nsamples = 14\nvalue = 14.164", fillcolor="#fdf3ec"] ;
19 -> 20 ;
21 [label="mse = 12.884\nsamples = 28\nvalue = 18.011", fillcolor="#fae7d9"] ;
19 -> 21 ;
22 [label="DIS <= 1.973\nmse = 8.852\nsamples = 47\nvalue = 11.532", fillcolor="#fefbf9"] ;
18 -> 22 ;
23 [label="mse = 6.797\nsamples = 33\nvalue = 10.379", fillcolor="#ffffff"] ;
22 -> 23 ;
24 [label="mse = 3.174\nsamples = 14\nvalue = 14.25", fillcolor="#fcf3ec"] ;
22 -> 24 ;
}