digraph Tree {
node [shape=box, style="filled", color="black"] ;
0 [label="Age <= 44.5\nentropy = 0.951\nsamples = 300\nvalue = [189, 111]", fillcolor="#f4cbad"] ;
1 [label="EstimatedSalary <= 90500.0\nentropy = 0.693\nsamples = 215\nvalue = [175, 40]", fillcolor="#eb9e66"] ;
0 -> 1 [labeldistance=2.5, labelangle=45, headlabel="True"] ;
2 [label="Age <= 36.5\nentropy = 0.241\nsamples = 176\nvalue = [169, 7]", fillcolor="#e68641"] ;
1 -> 2 ;
3 [label="entropy = 0.0\nsamples = 114\nvalue = [114, 0]", fillcolor="#e58139"] ;
2 -> 3 ;
4 [label="EstimatedSalary <= 67500.0\nentropy = 0.509\nsamples = 62\nvalue = [55, 7]", fillcolor="#e89152"] ;
2 -> 4 ;
5 [label="entropy = 0.0\nsamples = 31\nvalue = [31, 0]", fillcolor="#e58139"] ;
4 -> 5 ;
6 [label="EstimatedSalary <= 83500.0\nentropy = 0.771\nsamples = 31\nvalue = [24, 7]", fillcolor="#eda673"] ;
4 -> 6 ;
7 [label="EstimatedSalary <= 70500.0\nentropy = 0.663\nsamples = 29\nvalue = [24, 5]", fillcolor="#ea9b62"] ;
6 -> 7 ;
8 [label="entropy = 0.0\nsamples = 1\nvalue = [0, 1]", fillcolor="#399de5"] ;
7 -> 8 ;
9 [label="EstimatedSalary <= 78500.0\nentropy = 0.592\nsamples = 28\nvalue = [24, 4]", fillcolor="#e9965a"] ;
7 -> 9 ;
10 [label="EstimatedSalary <= 72500.0\nentropy = 0.684\nsamples = 22\nvalue = [18, 4]", fillcolor="#eb9d65"] ;
9 -> 10 ;
11 [label="Gender <= 0.5\nentropy = 0.391\nsamples = 13\nvalue = [12, 1]", fillcolor="#e78c49"] ;
10 -> 11 ;
12 [label="entropy = 0.0\nsamples = 7\nvalue = [7, 0]", fillcolor="#e58139"] ;
11 -> 12 ;
13 [label="Age <= 39.5\nentropy = 0.65\nsamples = 6\nvalue = [5, 1]", fillcolor="#ea9a61"] ;
11 -> 13 ;
14 [label="entropy = 0.0\nsamples = 4\nvalue = [4, 0]", fillcolor="#e58139"] ;
13 -> 14 ;
15 [label="EstimatedSalary <= 71500.0\nentropy = 1.0\nsamples = 2\nvalue = [1, 1]", fillcolor="#ffffff"] ;
13 -> 15 ;
16 [label="entropy = 0.0\nsamples = 1\nvalue = [0, 1]", fillcolor="#399de5"] ;
15 -> 16 ;
17 [label="entropy = 0.0\nsamples = 1\nvalue = [1, 0]", fillcolor="#e58139"] ;
15 -> 17 ;
18 [label="Gender <= 0.5\nentropy = 0.918\nsamples = 9\nvalue = [6, 3]", fillcolor="#f2c09c"] ;
10 -> 18 ;
19 [label="Age <= 38.0\nentropy = 1.0\nsamples = 4\nvalue = [2, 2]", fillcolor="#ffffff"] ;
18 -> 19 ;
20 [label="entropy = 0.0\nsamples = 1\nvalue = [0, 1]", fillcolor="#399de5"] ;
19 -> 20 ;
21 [label="Age <= 40.5\nentropy = 0.918\nsamples = 3\nvalue = [2, 1]", fillcolor="#f2c09c"] ;
19 -> 21 ;
22 [label="EstimatedSalary <= 74000.0\nentropy = 1.0\nsamples = 2\nvalue = [1, 1]", fillcolor="#ffffff"] ;
21 -> 22 ;
23 [label="entropy = 0.0\nsamples = 1\nvalue = [1, 0]", fillcolor="#e58139"] ;
22 -> 23 ;
24 [label="entropy = 0.0\nsamples = 1\nvalue = [0, 1]", fillcolor="#399de5"] ;
22 -> 24 ;
25 [label="entropy = 0.0\nsamples = 1\nvalue = [1, 0]", fillcolor="#e58139"] ;
21 -> 25 ;
26 [label="Age <= 41.0\nentropy = 0.722\nsamples = 5\nvalue = [4, 1]", fillcolor="#eca06a"] ;
18 -> 26 ;
27 [label="entropy = 0.0\nsamples = 4\nvalue = [4, 0]", fillcolor="#e58139"] ;
26 -> 27 ;
28 [label="entropy = 0.0\nsamples = 1\nvalue = [0, 1]", fillcolor="#399de5"] ;
26 -> 28 ;
29 [label="entropy = 0.0\nsamples = 6\nvalue = [6, 0]", fillcolor="#e58139"] ;
9 -> 29 ;
30 [label="entropy = 0.0\nsamples = 2\nvalue = [0, 2]", fillcolor="#399de5"] ;
6 -> 30 ;
31 [label="EstimatedSalary <= 133500.0\nentropy = 0.619\nsamples = 39\nvalue = [6, 33]", fillcolor="#5dafea"] ;
1 -> 31 ;
32 [label="EstimatedSalary <= 107500.0\nentropy = 0.779\nsamples = 26\nvalue = [6, 20]", fillcolor="#74baed"] ;
31 -> 32 ;
33 [label="entropy = 0.0\nsamples = 8\nvalue = [0, 8]", fillcolor="#399de5"] ;
32 -> 33 ;
34 [label="Gender <= 0.5\nentropy = 0.918\nsamples = 18\nvalue = [6, 12]", fillcolor="#9ccef2"] ;
32 -> 34 ;
35 [label="Age <= 30.5\nentropy = 1.0\nsamples = 10\nvalue = [5, 5]", fillcolor="#ffffff"] ;
34 -> 35 ;
36 [label="entropy = 0.0\nsamples = 2\nvalue = [2, 0]", fillcolor="#e58139"] ;
35 -> 36 ;
37 [label="Age <= 32.5\nentropy = 0.954\nsamples = 8\nvalue = [3, 5]", fillcolor="#b0d8f5"] ;
35 -> 37 ;
38 [label="entropy = 0.0\nsamples = 2\nvalue = [0, 2]", fillcolor="#399de5"] ;
37 -> 38 ;
39 [label="Age <= 34.5\nentropy = 1.0\nsamples = 6\nvalue = [3, 3]", fillcolor="#ffffff"] ;
37 -> 39 ;
40 [label="entropy = 0.0\nsamples = 1\nvalue = [1, 0]", fillcolor="#e58139"] ;
39 -> 40 ;
41 [label="Age <= 42.5\nentropy = 0.971\nsamples = 5\nvalue = [2, 3]", fillcolor="#bddef6"] ;
39 -> 41 ;
42 [label="EstimatedSalary <= 112500.0\nentropy = 0.811\nsamples = 4\nvalue = [1, 3]", fillcolor="#7bbeee"] ;
41 -> 42 ;
43 [label="Age <= 40.0\nentropy = 1.0\nsamples = 2\nvalue = [1, 1]", fillcolor="#ffffff"] ;
42 -> 43 ;
44 [label="entropy = 0.0\nsamples = 1\nvalue = [1, 0]", fillcolor="#e58139"] ;
43 -> 44 ;
45 [label="entropy = 0.0\nsamples = 1\nvalue = [0, 1]", fillcolor="#399de5"] ;
43 -> 45 ;
46 [label="entropy = 0.0\nsamples = 2\nvalue = [0, 2]", fillcolor="#399de5"] ;
42 -> 46 ;
47 [label="entropy = 0.0\nsamples = 1\nvalue = [1, 0]", fillcolor="#e58139"] ;
41 -> 47 ;
48 [label="EstimatedSalary <= 110000.0\nentropy = 0.544\nsamples = 8\nvalue = [1, 7]", fillcolor="#55abe9"] ;
34 -> 48 ;
49 [label="entropy = 0.0\nsamples = 1\nvalue = [1, 0]", fillcolor="#e58139"] ;
48 -> 49 ;
50 [label="entropy = 0.0\nsamples = 7\nvalue = [0, 7]", fillcolor="#399de5"] ;
48 -> 50 ;
51 [label="entropy = 0.0\nsamples = 13\nvalue = [0, 13]", fillcolor="#399de5"] ;
31 -> 51 ;
52 [label="EstimatedSalary <= 41500.0\nentropy = 0.645\nsamples = 85\nvalue = [14, 71]", fillcolor="#60b0ea"] ;
0 -> 52 [labeldistance=2.5, labelangle=-45, headlabel="False"] ;
53 [label="EstimatedSalary <= 22500.0\nentropy = 0.211\nsamples = 30\nvalue = [1, 29]", fillcolor="#40a0e6"] ;
52 -> 53 ;
54 [label="EstimatedSalary <= 21500.0\nentropy = 0.722\nsamples = 5\nvalue = [1, 4]", fillcolor="#6ab6ec"] ;
53 -> 54 ;
55 [label="entropy = 0.0\nsamples = 3\nvalue = [0, 3]", fillcolor="#399de5"] ;
54 -> 55 ;
56 [label="Age <= 45.5\nentropy = 1.0\nsamples = 2\nvalue = [1, 1]", fillcolor="#ffffff"] ;
54 -> 56 ;
57 [label="entropy = 0.0\nsamples = 1\nvalue = [0, 1]", fillcolor="#399de5"] ;
56 -> 57 ;
58 [label="entropy = 0.0\nsamples = 1\nvalue = [1, 0]", fillcolor="#e58139"] ;
56 -> 58 ;
59 [label="entropy = 0.0\nsamples = 25\nvalue = [0, 25]", fillcolor="#399de5"] ;
53 -> 59 ;
60 [label="Age <= 52.5\nentropy = 0.789\nsamples = 55\nvalue = [13, 42]", fillcolor="#76bbed"] ;
52 -> 60 ;
61 [label="EstimatedSalary <= 85000.0\nentropy = 0.946\nsamples = 33\nvalue = [12, 21]", fillcolor="#aad5f4"] ;
60 -> 61 ;
62 [label="Age <= 48.5\nentropy = 0.985\nsamples = 14\nvalue = [8, 6]", fillcolor="#f8e0ce"] ;
61 -> 62 ;
63 [label="EstimatedSalary <= 55000.0\nentropy = 0.994\nsamples = 11\nvalue = [5, 6]", fillcolor="#deeffb"] ;
62 -> 63 ;
64 [label="EstimatedSalary <= 48000.0\nentropy = 0.722\nsamples = 5\nvalue = [1, 4]", fillcolor="#6ab6ec"] ;
63 -> 64 ;
65 [label="Age <= 46.0\nentropy = 1.0\nsamples = 2\nvalue = [1, 1]", fillcolor="#ffffff"] ;
64 -> 65 ;
66 [label="entropy = 0.0\nsamples = 1\nvalue = [0, 1]", fillcolor="#399de5"] ;
65 -> 66 ;
67 [label="entropy = 0.0\nsamples = 1\nvalue = [1, 0]", fillcolor="#e58139"] ;
65 -> 67 ;
68 [label="entropy = 0.0\nsamples = 3\nvalue = [0, 3]", fillcolor="#399de5"] ;
64 -> 68 ;
69 [label="Age <= 47.0\nentropy = 0.918\nsamples = 6\nvalue = [4, 2]", fillcolor="#f2c09c"] ;
63 -> 69 ;
70 [label="Gender <= 0.5\nentropy = 0.722\nsamples = 5\nvalue = [4, 1]", fillcolor="#eca06a"] ;
69 -> 70 ;
71 [label="entropy = 0.0\nsamples = 2\nvalue = [2, 0]", fillcolor="#e58139"] ;
70 -> 71 ;
72 [label="EstimatedSalary <= 69000.0\nentropy = 0.918\nsamples = 3\nvalue = [2, 1]", fillcolor="#f2c09c"] ;
70 -> 72 ;
73 [label="entropy = 0.0\nsamples = 1\nvalue = [1, 0]", fillcolor="#e58139"] ;
72 -> 73 ;
74 [label="Age <= 45.5\nentropy = 1.0\nsamples = 2\nvalue = [1, 1]", fillcolor="#ffffff"] ;
72 -> 74 ;
75 [label="entropy = 0.0\nsamples = 1\nvalue = [1, 0]", fillcolor="#e58139"] ;
74 -> 75 ;
76 [label="entropy = 0.0\nsamples = 1\nvalue = [0, 1]", fillcolor="#399de5"] ;
74 -> 76 ;
77 [label="entropy = 0.0\nsamples = 1\nvalue = [0, 1]", fillcolor="#399de5"] ;
69 -> 77 ;
78 [label="entropy = 0.0\nsamples = 3\nvalue = [3, 0]", fillcolor="#e58139"] ;
62 -> 78 ;
79 [label="EstimatedSalary <= 92500.0\nentropy = 0.742\nsamples = 19\nvalue = [4, 15]", fillcolor="#6eb7ec"] ;
61 -> 79 ;
80 [label="entropy = 0.0\nsamples = 4\nvalue = [0, 4]", fillcolor="#399de5"] ;
79 -> 80 ;
81 [label="EstimatedSalary <= 115500.0\nentropy = 0.837\nsamples = 15\nvalue = [4, 11]", fillcolor="#81c1ee"] ;
79 -> 81 ;
82 [label="Age <= 46.5\nentropy = 1.0\nsamples = 4\nvalue = [2, 2]", fillcolor="#ffffff"] ;
81 -> 82 ;
83 [label="entropy = 0.0\nsamples = 1\nvalue = [1, 0]", fillcolor="#e58139"] ;
82 -> 83 ;
84 [label="EstimatedSalary <= 113500.0\nentropy = 0.918\nsamples = 3\nvalue = [1, 2]", fillcolor="#9ccef2"] ;
82 -> 84 ;
85 [label="entropy = 0.0\nsamples = 2\nvalue = [0, 2]", fillcolor="#399de5"] ;
84 -> 85 ;
86 [label="entropy = 0.0\nsamples = 1\nvalue = [1, 0]", fillcolor="#e58139"] ;
84 -> 86 ;
87 [label="EstimatedSalary <= 132500.0\nentropy = 0.684\nsamples = 11\nvalue = [2, 9]", fillcolor="#65b3eb"] ;
81 -> 87 ;
88 [label="entropy = 0.0\nsamples = 4\nvalue = [0, 4]", fillcolor="#399de5"] ;
87 -> 88 ;
89 [label="Age <= 51.5\nentropy = 0.863\nsamples = 7\nvalue = [2, 5]", fillcolor="#88c4ef"] ;
87 -> 89 ;
90 [label="Gender <= 0.5\nentropy = 0.971\nsamples = 5\nvalue = [2, 3]", fillcolor="#bddef6"] ;
89 -> 90 ;
91 [label="Age <= 49.5\nentropy = 0.811\nsamples = 4\nvalue = [1, 3]", fillcolor="#7bbeee"] ;
90 -> 91 ;
92 [label="entropy = 0.0\nsamples = 2\nvalue = [0, 2]", fillcolor="#399de5"] ;
91 -> 92 ;
93 [label="EstimatedSalary <= 140000.0\nentropy = 1.0\nsamples = 2\nvalue = [1, 1]", fillcolor="#ffffff"] ;
91 -> 93 ;
94 [label="entropy = 0.0\nsamples = 1\nvalue = [1, 0]", fillcolor="#e58139"] ;
93 -> 94 ;
95 [label="entropy = 0.0\nsamples = 1\nvalue = [0, 1]", fillcolor="#399de5"] ;
93 -> 95 ;
96 [label="entropy = 0.0\nsamples = 1\nvalue = [1, 0]", fillcolor="#e58139"] ;
90 -> 96 ;
97 [label="entropy = 0.0\nsamples = 2\nvalue = [0, 2]", fillcolor="#399de5"] ;
89 -> 97 ;
98 [label="EstimatedSalary <= 44000.0\nentropy = 0.267\nsamples = 22\nvalue = [1, 21]", fillcolor="#42a2e6"] ;
60 -> 98 ;
99 [label="Age <= 59.5\nentropy = 1.0\nsamples = 2\nvalue = [1, 1]", fillcolor="#ffffff"] ;
98 -> 99 ;
100 [label="entropy = 0.0\nsamples = 1\nvalue = [1, 0]", fillcolor="#e58139"] ;
99 -> 100 ;
101 [label="entropy = 0.0\nsamples = 1\nvalue = [0, 1]", fillcolor="#399de5"] ;
99 -> 101 ;
102 [label="entropy = 0.0\nsamples = 20\nvalue = [0, 20]", fillcolor="#399de5"] ;
98 -> 102 ;
}